digraph Tree {
node [shape=box, fontname="helvetica"] ;
edge [fontname="helvetica"] ;
0 [label="x[0] <= 2.5\ngini = 0.469\nsamples = 712\nvalue = [444, 268]\nclass = setosa"] ;
1 [label="x[1] <= 0.5\ngini = 0.495\nsamples = 314\nvalue = [142, 172]\nclass = versicolor"] ;
0 -> 1 [labeldistance=2.5, labelangle=45, headlabel="True"] ;
2 [label="x[0] <= 1.5\ngini = 0.5\nsamples = 199\nvalue = [101, 98]\nclass = setosa"] ;
1 -> 2 ;
3 [label="gini = 0.493\nsamples = 102\nvalue = [45, 57]\nclass = versicolor"] ;
2 -> 3 ;
4 [label="gini = 0.488\nsamples = 97\nvalue = [56.0, 41.0]\nclass = setosa"] ;
2 -> 4 ;
5 [label="x[0] <= 1.5\ngini = 0.459\nsamples = 115\nvalue = [41, 74]\nclass = versicolor"] ;
1 -> 5 ;
6 [label="x[1] <= 1.5\ngini = 0.429\nsamples = 61\nvalue = [19, 42]\nclass = versicolor"] ;
5 -> 6 ;
7 [label="gini = 0.431\nsamples = 54\nvalue = [17, 37]\nclass = versicolor"] ;
6 -> 7 ;
8 [label="x[1] <= 2.5\ngini = 0.408\nsamples = 7\nvalue = [2, 5]\nclass = versicolor"] ;
6 -> 8 ;
9 [label="gini = 0.375\nsamples = 4\nvalue = [1, 3]\nclass = versicolor"] ;
8 -> 9 ;
10 [label="gini = 0.444\nsamples = 3\nvalue = [1, 2]\nclass = versicolor"] ;
8 -> 10 ;
11 [label="x[1] <= 2.5\ngini = 0.483\nsamples = 54\nvalue = [22, 32]\nclass = versicolor"] ;
5 -> 11 ;
12 [label="x[1] <= 1.5\ngini = 0.486\nsamples = 53\nvalue = [22, 31]\nclass = versicolor"] ;
11 -> 12 ;
13 [label="gini = 0.489\nsamples = 47\nvalue = [20.0, 27.0]\nclass = versicolor"] ;
12 -> 13 ;
14 [label="gini = 0.444\nsamples = 6\nvalue = [2, 4]\nclass = versicolor"] ;
12 -> 14 ;
15 [label="gini = 0.0\nsamples = 1\nvalue = [0, 1]\nclass = versicolor"] ;
11 -> 15 ;
16 [label="x[1] <= 2.5\ngini = 0.366\nsamples = 398\nvalue = [302, 96]\nclass = setosa"] ;
0 -> 16 [labeldistance=2.5, labelangle=-45, headlabel="False"] ;
17 [label="x[1] <= 0.5\ngini = 0.38\nsamples = 361\nvalue = [269, 92]\nclass = setosa"] ;
16 -> 17 ;
18 [label="gini = 0.367\nsamples = 285\nvalue = [216, 69]\nclass = setosa"] ;
17 -> 18 ;
19 [label="x[1] <= 1.5\ngini = 0.422\nsamples = 76\nvalue = [53.0, 23.0]\nclass = setosa"] ;
17 -> 19 ;
20 [label="gini = 0.421\nsamples = 63\nvalue = [44, 19]\nclass = setosa"] ;
19 -> 20 ;
21 [label="gini = 0.426\nsamples = 13\nvalue = [9, 4]\nclass = setosa"] ;
19 -> 21 ;
22 [label="x[1] <= 4.5\ngini = 0.193\nsamples = 37\nvalue = [33, 4]\nclass = setosa"] ;
16 -> 22 ;
23 [label="x[1] <= 3.5\ngini = 0.269\nsamples = 25\nvalue = [21, 4]\nclass = setosa"] ;
22 -> 23 ;
24 [label="gini = 0.198\nsamples = 9\nvalue = [8, 1]\nclass = setosa"] ;
23 -> 24 ;
25 [label="gini = 0.305\nsamples = 16\nvalue = [13, 3]\nclass = setosa"] ;
23 -> 25 ;
26 [label="gini = 0.0\nsamples = 12\nvalue = [12, 0]\nclass = setosa"] ;
22 -> 26 ;
}